{"W": [[-0.16771230101585388, -0.34256884455680847, 0.5555847883224487, -0.7588358521461487, -0.6359868049621582, -0.31078070402145386, -0.2562347948551178, -0.3471161127090454, -0.540410041809082, -0.5068587064743042], [-0.13164731860160828, 0.2696792483329773, -0.30850306153297424, -0.3509168028831482, -0.20750801265239716, -0.10830017179250717, -0.42494329810142517, -0.47664445638656616, -0.5223976969718933, 0.5093746781349182], [0.1836501657962799, 0.19491781294345856, 0.015383366495370865, -0.22071093320846558, 0.27487626671791077, -0.05000215023756027, -0.12003739178180695, -0.3557271361351013, -0.28457823395729065, -0.2985427975654602], [-0.17607086896896362, 0.21480950713157654, -0.7133230566978455, 0.41117316484451294, -0.19212765991687775, -0.4331887662410736, -0.05606552213430405, -1.0716243982315063, -0.5754429697990417, -0.048408299684524536], [0.8302055597305298, -0.036536261439323425, 0.6451261043548584, 1.5391312837600708, 1.2180545330047607, 0.9215714931488037, 1.9224902391433716, 3.1407809257507324, 1.9768496751785278, 1.1841641664505005], [-0.310697466135025, 0.18428321182727814, -0.4388650357723236, -0.6382412314414978, -0.46444448828697205, -0.2153613120317459, -0.8094437122344971, -0.35360172390937805, 0.12019163370132446, -0.40589439868927], [-0.08718661218881607, -0.43701180815696716, -0.37865564227104187, 0.1271207630634308, -0.2389732152223587, 0.476889967918396, -0.13047946989536285, -0.02223939821124077, -0.19911080598831177, -0.38655224442481995], [0.0436578206717968, 0.1685427576303482, 0.5241451263427734, -0.32808786630630493, -0.1474476158618927, -0.23250634968280792, -0.2913372814655304, -0.4188198447227478, -0.1929018646478653, -0.48576685786247253]], "b": [-0.07490646839141846, -0.017603402957320213, 0.014789127744734287, -0.016544880345463753, 0.21722666919231415, -0.08477916568517685, -0.04397258535027504, 0.005791479721665382]}