{"W": [[0.017523666843771935, -0.2100847363471985, -0.5723715424537659, 0.6061497330665588, -0.3070451617240906, -0.2775011360645294, -0.10428174585103989, -0.49404868483543396, -0.7271435856819153, -0.47637835144996643], [0.2150351107120514, -0.5240336656570435, -0.12793214619159698, 0.332242876291275, -0.2463926523923874, -0.43638235330581665, -0.08416378498077393, -0.29121133685112, -0.08459752798080444, -0.33810335397720337], [0.03575810790061951, -0.11108876019716263, -0.5756183862686157, -0.045687463134527206, -0.4246237874031067, 0.08345583826303482, -0.4855876564979553, -0.3625625669956207, -0.3826616108417511, -0.589059054851532], [-0.37844929099082947, 2.933305263519287, -1.7038732767105103, -0.4947359263896942, 0.6732786893844604, -0.06597688794136047, 0.22677047550678253, -1.145681619644165, -1.1708189249038696, 0.8281071782112122], [-0.17146794497966766, -0.3667541742324829, 0.32075950503349304, -0.6681490540504456, -0.6397935152053833, -0.3015057444572449, -0.6587560772895813, -0.3619517982006073, -0.14141926169395447, -0.4100441038608551], [0.11692334711551666, -0.4244457185268402, -0.1524236500263214, 0.606976330280304, 0.13332606852054596, -0.2890499234199524, -0.09623033553361893, 0.058128099888563156, 0.45338860154151917, -0.051178645342588425], [-0.14325883984565735, -0.6400136351585388, 0.703156590461731, -0.8515141010284424, -0.19258883595466614, 0.10468615591526031, -0.7086837887763977, -0.21855121850967407, -0.24810272455215454, -0.39655688405036926], [0.4921369254589081, -0.440764844417572, 2.009200096130371, 0.29534631967544556, 0.6102738976478577, 1.2305928468704224, 1.7448735237121582, 2.9108991622924805, 2.083550453186035, 0.9947336316108704]], "b": [-0.03795526549220085, -0.010601811110973358, -0.05740904435515404, 0.06565853953361511, -0.0689609944820404, 0.007514127995818853, -0.05395526438951492, 0.15570886433124542]}