{"W": [[1.227773904800415, 1.9505709409713745, 0.8613302707672119, 0.4197356700897217, 2.7577412128448486, 0.7089558839797974, 1.7018415927886963, 2.3308825492858887, 1.9480972290039062, 0.6171693205833435], [-0.3265535831451416, 0.689615786075592, -0.7982691526412964, -0.34446972608566284, -0.44767341017723083, 0.6269793510437012, -0.0013164327247068286, 0.020758630707859993, -0.33623385429382324, -0.34169092774391174], [0.1460414081811905, -0.41855549812316895, -0.1680264174938202, 0.015219273045659065, -0.36941561102867126, -0.32426154613494873, -0.39958760142326355, -0.2777891457080841, -0.45830580592155457, -0.29969489574432373], [-0.28910475969314575, -0.2605222165584564, -0.1504613310098648, -0.3140239715576172, -0.594998836517334, -0.6380040049552917, -0.483127623796463, -0.8253053426742554, -0.5828202962875366, -0.17970046401023865], [-0.08247833698987961, -1.018112063407898, 0.36770346760749817, -0.0007884278311394155, -0.785412073135376, 0.07336428016424179, -0.49313825368881226, -0.25895553827285767, 0.15065327286720276, -0.0686931163072586], [-0.0265708789229393, -0.46564555168151855, -0.3614042103290558, 0.3692804276943207, -0.35104554891586304, 0.12197628617286682, -0.004266917239874601, -0.31009235978126526, -0.07940041273832321, 0.1480494886636734], [-0.2733924984931946, 0.26985129714012146, 0.11188092827796936, -0.5466320514678955, 0.2605558931827545, -0.5317108035087585, -0.08096418529748917, -0.09362214803695679, -0.48197925090789795, -0.1786242574453354], [-0.19151607155799866, -0.5311098098754883, 0.03813943266868591, 0.18231327831745148, -0.8633500933647156, 0.01103954203426838, -0.4054960608482361, -0.49088209867477417, -0.3778347074985504, -0.13529415428638458]], "b": [0.3028407692909241, -0.023941893130540848, -0.04130644351243973, -0.0803111344575882, -0.06266478449106216, -0.04127361625432968, 0.008391592651605606, -0.06173321232199669]}