{"W": [[-0.2506270408630371, -0.7991291284561157, -0.14205966889858246, 0.21190990507602692, -0.9011519551277161, -0.3118778169155121, -0.14162343740463257, -0.8491604328155518, -0.4548299312591553, 0.0019269147887825966], [-0.4911244511604309, 0.5235341191291809, -1.6281582117080688, 0.16396449506282806, -0.6644966006278992, -0.1453678011894226, 0.051462508738040924, 0.2278902232646942, -0.7890722751617432, -0.07691749185323715], [-0.046485260128974915, -1.0435057878494263, -0.0722208172082901, -0.02040039375424385, -0.9386710524559021, -0.03065907023847103, -0.33636704087257385, -0.6474059224128723, -0.2873023748397827, -0.746032178401947], [-0.08439643681049347, 1.3156183958053589, -0.22060316801071167, -0.6836923360824585, 0.4807000160217285, -0.33084142208099365, -0.2025449275970459, 0.15566441416740417, -0.4556925892829895, -0.5521315932273865], [-0.00611977931112051, 0.7789399027824402, -0.6040356159210205, -0.2421998679637909, -0.12494773417711258, -0.5456247329711914, -0.3047466576099396, -0.6149694919586182, -0.10245367139577866, -0.6234750151634216], [-0.03274433687329292, -0.683079719543457, 0.4907212555408478, -0.2489134967327118, -0.18796707689762115, -0.36920464038848877, -0.8298268914222717, -0.8968623280525208, -0.005833798553794622, 0.5352277159690857], [0.2949107587337494, -0.6447176933288574, -0.3547452688217163, 0.631731390953064, -0.02201111987233162, -0.5594863295555115, -0.4066471457481384, 0.2688887417316437, -0.04421282559633255, -0.2181149125099182], [0.8007978200912476, 0.7684547901153564, 2.4320435523986816, -0.03176745027303696, 1.9649949073791504, 2.341421127319336, 2.004225254058838, 2.4509851932525635, 1.921605110168457, 1.2410434484481812]], "b": [-0.09325187653303146, -0.07269486039876938, -0.09778229147195816, 0.03332164138555527, -0.004276089835911989, -0.03962376341223717, -0.011890947818756104, 0.2862042188644409]}