{"W": [[-0.40918096899986267, -0.4705877900123596, -0.0994185358285904, 0.043377816677093506, -0.4891963601112366, -0.02341369539499283, 0.17821674048900604, -0.15134066343307495, -0.25429490208625793, -0.42991891503334045], [-0.4971167743206024, -0.2952862083911896, -0.029012583196163177, -0.5247034430503845, -0.554003119468689, -0.05622875317931175, -0.17155157029628754, -0.4801490604877472, -0.4930917024612427, -0.5165845155715942], [0.13089783489704132, 0.8489730954170227, -0.4259350299835205, -0.4138268828392029, 0.0599188506603241, 0.011092259548604488, -0.16324113309383392, -0.3345103859901428, -0.6341515183448792, 0.29706764221191406], [1.0163567066192627, -0.007141917943954468, 1.202439785003662, 0.46388527750968933, 1.0387333631515503, -0.1220843717455864, 0.15683460235595703, 1.3302839994430542, 1.4743878841400146, 0.6049087047576904], [-0.08071981370449066, -0.703811526298523, 0.37907853722572327, -0.04991677403450012, -0.35251960158348083, -0.0719844251871109, -0.10593291372060776, 0.27464884519577026, 0.5366836786270142, -0.09084172546863556], [-0.06263629347085953, -0.5072978734970093, -0.2928207814693451, 0.304820716381073, -0.17041093111038208, 0.0931280180811882, -0.12414020299911499, -0.26054510474205017, -0.10448912531137466, -0.3269619345664978], [0.38473278284072876, 0.7685092687606812, -0.5478758215904236, 0.17496883869171143, 0.4743131399154663, 0.1356240063905716, 0.08579389750957489, 0.06637505441904068, -0.3426096439361572, 0.1352434903383255], [-0.29813143610954285, 0.5827609300613403, -0.2855607569217682, -0.21797585487365723, -0.4003990590572357, 0.08219025284051895, -0.022035939618945122, -0.349748820066452, -0.4002395272254944, -0.11138694733381271]], "b": [-0.07298737019300461, -0.06352978199720383, 0.016751207411289215, 0.1581076681613922, -0.03501114621758461, -0.04502657428383827, 0.06444213539361954, -0.02274615690112114]}